<?xml version="1.0"?>
<opencv_storage>
<opencv_ml_svm>
  <format>3</format>
  <svmType>C_SVC</svmType>
  <kernel>
    <type>LINEAR</type></kernel>
  <C>1.</C>
  <term_criteria><iterations>10000000</iterations></term_criteria>
  <var_count>24</var_count>
  <class_count>2</class_count>
  <class_labels type_id="opencv-matrix">
    <rows>2</rows>
    <cols>1</cols>
    <dt>i</dt>
    <data>
      -1 1</data></class_labels>
  <sv_total>1</sv_total>
  <support_vectors>
    <_>
      -1.37324613e-02 8.22876021e-02 -1.59866395e-05 -1.32767437e-02
      -5.68252921e-01 1.68826687e-03 3.91935632e-02 -9.07213539e-02
      -1.80097879e-03 2.53281184e-02 1.05490543e-01 1.31309789e-03
      2.53281184e-02 1.05490543e-01 1.31309789e-03 2.53281184e-02
      1.05490543e-01 1.31309789e-03 2.53281184e-02 1.05490543e-01
      1.31309789e-03 2.53281184e-02 1.05490543e-01 1.31309789e-03</_></support_vectors>
  <uncompressed_sv_total>47</uncompressed_sv_total>
  <uncompressed_support_vectors>
    <_>
      1.65916455e+00 1.52407501e+02 5978. 1.73813140e+00 1.57509872e+02
      8908. 1.71573246e+00 1.64788696e+02 8064. 1.55304778e+00
      1.73389435e+02 3274. 1.55304778e+00 1.73389435e+02 3274.
      1.55304778e+00 1.73389435e+02 3274. 1.55304778e+00 1.73389435e+02
      3274. 1.55304778e+00 1.73389435e+02 3274.</_>
    <_>
      1.52718806e+00 1.76246857e+02 3095. 1.72005415e+00 1.82141891e+02
      8133. 1.75234568e+00 1.89808777e+02 9999. 1.64693439e+00
      1.97742538e+02 5255. 1.64693439e+00 1.97742538e+02 5255.
      1.64693439e+00 1.97742538e+02 5255. 1.64693439e+00 1.97742538e+02
      5255. 1.64693439e+00 1.97742538e+02 5255.</_>
    <_>
      1.61165285e+00 1.37239975e+02 4788. 1.69558334e+00 1.47852798e+02
      7289. 1.72434986e+00 1.56521835e+02 8658. 1.57761765e+00
      1.68739944e+02 4103. 1.57761765e+00 1.68739944e+02 4103.
      1.57761765e+00 1.68739944e+02 4103. 1.57761765e+00 1.68739944e+02
      4103. 1.57761765e+00 1.68739944e+02 4103.</_>
    <_>
      1.40770173e+00 1.55086197e+02 1775. 1.66368878e+00 1.67096634e+02
      6230. 1.74756694e+00 1.77537033e+02 9830. 1.67582679e+00
      1.84646500e+02 6215. 1.67582679e+00 1.84646500e+02 6215.
      1.67582679e+00 1.84646500e+02 6215. 1.67582679e+00 1.84646500e+02
      6215. 1.67582679e+00 1.84646500e+02 6215.</_>
    <_>
      1.63923573e+00 1.38242203e+02 5454. 1.73925817e+00 1.42305344e+02
      8993. 1.64448619e+00 1.55660141e+02 5979. 1.50085461e+00
      1.64945435e+02 2657. 1.50085461e+00 1.64945435e+02 2657.
      1.50085461e+00 1.64945435e+02 2657. 1.50085461e+00 1.64945435e+02
      2657. 1.50085461e+00 1.64945435e+02 2657.</_>
    <_>
      1.63232386e+00 1.25764359e+02 5224. 1.72370243e+00 1.31020813e+02
      8313. 1.73651183e+00 1.37129364e+02 8967. 1.61259139e+00
      1.44519913e+02 4520. 1.61259139e+00 1.44519913e+02 4520.
      1.61259139e+00 1.44519913e+02 4520. 1.61259139e+00 1.44519913e+02
      4520. 1.61259139e+00 1.44519913e+02 4520.</_>
    <_>
      1.58050454e+00 1.39187012e+02 4112. 1.72129226e+00 1.48373322e+02
      8194. 1.73424697e+00 1.56721176e+02 9056. 1.56309795e+00
      1.67551773e+02 3670. 1.56309795e+00 1.67551773e+02 3670.
      1.56309795e+00 1.67551773e+02 3670. 1.56309795e+00 1.67551773e+02
      3670. 1.56309795e+00 1.67551773e+02 3670.</_>
    <_>
      1.45630717e+00 1.45685181e+02 2287. 1.69115090e+00 1.56449173e+02
      7133. 1.66161036e+00 1.71380035e+02 6523. 1.47764850e+00
      1.84974411e+02 2423. 1.47764850e+00 1.84974411e+02 2423.
      1.47764850e+00 1.84974411e+02 2423. 1.47764850e+00 1.84974411e+02
      2423. 1.47764850e+00 1.84974411e+02 2423.</_>
    <_>
      1.62469125e+00 1.32758499e+02 5056. 1.73314452e+00 1.37691544e+02
      8818. 1.66722655e+00 1.47255997e+02 5883. 1.43075359e+00
      1.58241760e+02 1791. 1.43075359e+00 1.58241760e+02 1791.
      1.43075359e+00 1.58241760e+02 1791. 1.43075359e+00 1.58241760e+02
      1791. 1.43075359e+00 1.58241760e+02 1791.</_>
    <_>
      1.25729096e+00 9.81739120e+01 966. 1.30414224e+00 1.17346710e+02
      1171. 1.73996627e+00 1.51639908e+02 9403. 1.69548523e+00
      1.58961426e+02 7387. 1.69548523e+00 1.58961426e+02 7387.
      1.69548523e+00 1.58961426e+02 7387. 1.69548523e+00 1.58961426e+02
      7387. 1.69548523e+00 1.58961426e+02 7387.</_>
    <_>
      1.26697922e+00 1.01292877e+02 997. 1.32775569e+00 1.18951294e+02
      1273. 1.74800777e+00 1.54333374e+02 9869. 1.70402634e+00
      1.62046097e+02 7809. 1.70402634e+00 1.62046097e+02 7809.
      1.70402634e+00 1.62046097e+02 7809. 1.70402634e+00 1.62046097e+02
      7809. 1.70402634e+00 1.62046097e+02 7809.</_>
    <_>
      1.26188362e+00 1.00263901e+02 989. 1.31618845e+00 1.20412003e+02
      1233. 1.74368310e+00 1.51033173e+02 9464. 1.63967693e+00
      1.63576492e+02 5707. 1.63967693e+00 1.63576492e+02 5707.
      1.63967693e+00 1.63576492e+02 5707. 1.63967693e+00 1.63576492e+02
      5707. 1.63967693e+00 1.63576492e+02 5707.</_>
    <_>
      1.24097919e+00 1.33266113e+02 853. 1.35048223e+00 1.46029663e+02
      1382. 1.74772727e+00 1.76382248e+02 10064. 1.65689933e+00
      1.85576401e+02 5798. 1.65689933e+00 1.85576401e+02 5798.
      1.65689933e+00 1.85576401e+02 5798. 1.65689933e+00 1.85576401e+02
      5798. 1.65689933e+00 1.85576401e+02 5798.</_>
    <_>
      1.18124866e+00 1.09154625e+02 692. 1.29883766e+00 1.29745270e+02
      1162. 1.38444901e+00 1.49562454e+02 1625. 1.75069034e+00
      1.71298813e+02 10023. 1.75069034e+00 1.71298813e+02 10023.
      1.75069034e+00 1.71298813e+02 10023. 1.75069034e+00 1.71298813e+02
      10023. 1.75069034e+00 1.71298813e+02 10023.</_>
    <_>
      1.19005203e+00 1.06963852e+02 664. 1.29242957e+00 1.27307068e+02
      1104. 1.32085311e+00 1.44145615e+02 1243. 1.65733647e+00
      1.71611404e+02 6526. 1.65733647e+00 1.71611404e+02 6526.
      1.65733647e+00 1.71611404e+02 6526. 1.65733647e+00 1.71611404e+02
      6526. 1.65733647e+00 1.71611404e+02 6526.</_>
    <_>
      1.19839132e+00 1.07141830e+02 557. 1.27208459e+00 1.19724579e+02
      1013. 1.34892333e+00 1.31703583e+02 1454. 1.73360527e+00
      1.46895218e+02 8943. 1.73360527e+00 1.46895218e+02 8943.
      1.73360527e+00 1.46895218e+02 8943. 1.73360527e+00 1.46895218e+02
      8943. 1.73360527e+00 1.46895218e+02 8943.</_>
    <_>
      1.58938491e+00 1.38336945e+02 4428. 1.64590502e+00 1.47500275e+02
      5589. 1.56731737e+00 1.67516602e+02 3703. 1.44900930e+00
      1.86134277e+02 2115. 1.44900930e+00 1.86134277e+02 2115.
      1.44900930e+00 1.86134277e+02 2115. 1.44900930e+00 1.86134277e+02
      2115. 1.44900930e+00 1.86134277e+02 2115.</_>
    <_>
      1.60299766e+00 1.08155113e+02 4545. 1.68432426e+00 1.14988297e+02
      6749. 1.04894626e+00 1.48687881e+02 330. 1.14929235e+00
      1.67971664e+02 494. 1.14929235e+00 1.67971664e+02 494.
      1.14929235e+00 1.67971664e+02 494. 1.14929235e+00 1.67971664e+02
      494. 1.14929235e+00 1.67971664e+02 494.</_>
    <_>
      1.62037611e+00 1.30545105e+02 5210. 1.67063534e+00 1.39078659e+02
      6280. 1.29249978e+00 1.65062256e+02 996. 1.30142033e+00
      1.84151031e+02 1119. 1.30142033e+00 1.84151031e+02 1119.
      1.30142033e+00 1.84151031e+02 1119. 1.30142033e+00 1.84151031e+02
      1119. 1.30142033e+00 1.84151031e+02 1119.</_>
    <_>
      1.56908453e+00 1.42967957e+02 3964. 1.72435129e+00 1.46798584e+02
      8366. 1.71403003e+00 1.52098557e+02 7833. 1.47220719e+00
      1.60294418e+02 1987. 1.47220719e+00 1.60294418e+02 1987.
      1.47220719e+00 1.60294418e+02 1987. 1.47220719e+00 1.60294418e+02
      1987. 1.47220719e+00 1.60294418e+02 1987.</_>
    <_>
      1.45939445e+00 1.44110336e+02 2302. 1.67992914e+00 1.50767715e+02
      6845. 1.75438368e+00 1.59265244e+02 9757. 1.61692023e+00
      1.68810379e+02 3834. 1.61692023e+00 1.68810379e+02 3834.
      1.61692023e+00 1.68810379e+02 3834. 1.61692023e+00 1.68810379e+02
      3834. 1.61692023e+00 1.68810379e+02 3834.</_>
    <_>
      1.63637590e+00 1.48754150e+02 5243. 1.75544286e+00 1.53918716e+02
      10175. 1.75150537e+00 1.62169952e+02 9467. 1.58956325e+00
      1.72493286e+02 3201. 1.58956325e+00 1.72493286e+02 3201.
      1.58956325e+00 1.72493286e+02 3201. 1.58956325e+00 1.72493286e+02
      3201. 1.58956325e+00 1.72493286e+02 3201.</_>
    <_>
      1.61374390e+00 1.29311493e+02 4745. 1.72964525e+00 1.33742661e+02
      8619. 1.70915091e+00 1.39500549e+02 7276. 1.46037793e+00
      1.48395126e+02 1764. 1.46037793e+00 1.48395126e+02 1764.
      1.46037793e+00 1.48395126e+02 1764. 1.46037793e+00 1.48395126e+02
      1764. 1.46037793e+00 1.48395126e+02 1764.</_>
    <_>
      1.58313310e+00 1.21524658e+02 4056. 1.70381713e+00 1.26082375e+02
      7381. 1.70892501e+00 1.32633911e+02 7490. 1.47970998e+00
      1.41275787e+02 2016. 1.47970998e+00 1.41275787e+02 2016.
      1.47970998e+00 1.41275787e+02 2016. 1.47970998e+00 1.41275787e+02
      2016. 1.47970998e+00 1.41275787e+02 2016.</_>
    <_>
      1.61704612e+00 1.25340263e+02 4811. 1.74495625e+00 1.28473221e+02
      9467. 1.72602141e+00 1.34523972e+02 7949. 1.47960377e+00
      1.43831680e+02 1812. 1.47960377e+00 1.43831680e+02 1812.
      1.47960377e+00 1.43831680e+02 1812. 1.47960377e+00 1.43831680e+02
      1812. 1.47960377e+00 1.43831680e+02 1812.</_>
    <_>
      9.51624990e-01 3.37448273e+01 145. 1.05434382e+00 6.47750015e+01
      360. 1.61959839e+00 1.04542511e+02 4940. 1.67848825e+00
      1.22472816e+02 6309. 1.67848825e+00 1.22472816e+02 6309.
      1.67848825e+00 1.22472816e+02 6309. 1.67848825e+00 1.22472816e+02
      6309. 1.67848825e+00 1.22472816e+02 6309.</_>
    <_>
      1.50731874e+00 1.47591232e+02 2762. 1.71246386e+00 1.51924759e+02
      7855. 1.77876210e+00 1.60869720e+02 11598. 1.65893197e+00
      1.72558014e+02 4706. 1.65893197e+00 1.72558014e+02 4706.
      1.65893197e+00 1.72558014e+02 4706. 1.65893197e+00 1.72558014e+02
      4706. 1.65893197e+00 1.72558014e+02 4706.</_>
    <_>
      1.42393529e+00 1.29592957e+02 1818. 1.54957390e+00 1.40413651e+02
      4175. 1.67039895e+00 1.59909943e+02 6285. 1.70476043e+00
      1.76804428e+02 6765. 1.70476043e+00 1.76804428e+02 6765.
      1.70476043e+00 1.76804428e+02 6765. 1.70476043e+00 1.76804428e+02
      6765. 1.70476043e+00 1.76804428e+02 6765.</_>
    <_>
      1.59683502e+00 1.44054016e+02 4276. 1.72126532e+00 1.49339783e+02
      8261. 1.75617397e+00 1.55931305e+02 9987. 1.66787231e+00
      1.62235733e+02 5417. 1.66787231e+00 1.62235733e+02 5417.
      1.66787231e+00 1.62235733e+02 5417. 1.66787231e+00 1.62235733e+02
      5417. 1.66787231e+00 1.62235733e+02 5417.</_>
    <_>
      1.59704733e+00 1.30368118e+02 5145. 1.65036404e+00 1.40657074e+02
      5558. 1.67203116e+00 1.58104843e+02 6247. 1.53709042e+00
      1.72829315e+02 2900. 1.53709042e+00 1.72829315e+02 2900.
      1.53709042e+00 1.72829315e+02 2900. 1.53709042e+00 1.72829315e+02
      2900. 1.53709042e+00 1.72829315e+02 2900.</_>
    <_>
      1.55078220e+00 1.34069931e+02 3947. 1.54720521e+00 1.44484802e+02
      3453. 1.61104107e+00 1.64754028e+02 4724. 1.55611670e+00
      1.82655884e+02 3432. 1.55611670e+00 1.82655884e+02 3432.
      1.55611670e+00 1.82655884e+02 3432. 1.55611670e+00 1.82655884e+02
      3432. 1.55611670e+00 1.82655884e+02 3432.</_>
    <_>
      1.59423864e+00 1.26900467e+02 4471. 1.73044801e+00 1.31617569e+02
      8744. 1.71681905e+00 1.38951187e+02 7458. 1.36979997e+00
      1.53858093e+02 1057. 1.36979997e+00 1.53858093e+02 1057.
      1.36979997e+00 1.53858093e+02 1057. 1.36979997e+00 1.53858093e+02
      1057. 1.36979997e+00 1.53858093e+02 1057.</_>
    <_>
      1.46313620e+00 1.34677933e+02 2366. 1.57353067e+00 1.42690506e+02
      4530. 1.65590644e+00 1.56037445e+02 5581. 1.61833155e+00
      1.70304382e+02 4294. 1.61833155e+00 1.70304382e+02 4294.
      1.61833155e+00 1.70304382e+02 4294. 1.61833155e+00 1.70304382e+02
      4294. 1.61833155e+00 1.70304382e+02 4294.</_>
    <_>
      1.41778827e+00 1.28926422e+02 2025. 1.55336165e+00 1.37812286e+02
      4251. 1.67778683e+00 1.51701096e+02 6313. 1.66898322e+00
      1.66334305e+02 5510. 1.66898322e+00 1.66334305e+02 5510.
      1.66898322e+00 1.66334305e+02 5510. 1.66898322e+00 1.66334305e+02
      5510. 1.66898322e+00 1.66334305e+02 5510.</_>
    <_>
      1.36423087e+00 1.38979691e+02 1576. 1.52243710e+00 1.50897415e+02
      3626. 1.66620719e+00 1.71566132e+02 6200. 1.71127999e+00
      1.87287354e+02 7082. 1.71127999e+00 1.87287354e+02 7082.
      1.71127999e+00 1.87287354e+02 7082. 1.71127999e+00 1.87287354e+02
      7082. 1.71127999e+00 1.87287354e+02 7082.</_>
    <_>
      1.35311341e+00 1.35142029e+02 1549. 1.52991235e+00 1.46040131e+02
      3713. 1.60091484e+00 1.72759171e+02 4472. 1.70397413e+00
      1.91482422e+02 7309. 1.70397413e+00 1.91482422e+02 7309.
      1.70397413e+00 1.91482422e+02 7309. 1.70397413e+00 1.91482422e+02
      7309. 1.70397413e+00 1.91482422e+02 7309.</_>
    <_>
      1.40544021e+00 1.13410789e+02 1928. 1.55879223e+00 1.23462952e+02
      4359. 1.62892175e+00 1.51785110e+02 4770. 1.67201126e+00
      1.70165833e+02 6145. 1.67201126e+00 1.70165833e+02 6145.
      1.67201126e+00 1.70165833e+02 6145. 1.67201126e+00 1.70165833e+02
      6145. 1.67201126e+00 1.70165833e+02 6145.</_>
    <_>
      1.42254233e+00 1.07737915e+02 2152. 1.54035461e+00 1.19752602e+02
      3941. 1.56462598e+00 1.48126053e+02 3435. 1.66541064e+00
      1.68373489e+02 6035. 1.66541064e+00 1.68373489e+02 6035.
      1.66541064e+00 1.68373489e+02 6035. 1.66541064e+00 1.68373489e+02
      6035. 1.66541064e+00 1.68373489e+02 6035.</_>
    <_>
      1.45475852e+00 1.37523422e+02 2220. 1.70629287e+00 1.42511108e+02
      7654. 1.73297822e+00 1.50338882e+02 8419. 1.51683915e+00
      1.60198135e+02 2256. 1.51683915e+00 1.60198135e+02 2256.
      1.51683915e+00 1.60198135e+02 2256. 1.51683915e+00 1.60198135e+02
      2256. 1.51683915e+00 1.60198135e+02 2256.</_>
    <_>
      1.65923059e+00 1.26799568e+02 6017. 1.74623799e+00 1.30582428e+02
      9481. 1.69799066e+00 1.37092484e+02 6671. 1.43670082e+00
      1.46805908e+02 1592. 1.43670082e+00 1.46805908e+02 1592.
      1.43670082e+00 1.46805908e+02 1592. 1.43670082e+00 1.46805908e+02
      1592. 1.43670082e+00 1.46805908e+02 1592.</_>
    <_>
      1.65800488e+00 1.57234100e+02 6117. 1.71579540e+00 1.64317642e+02
      8327. 1.11367357e+00 1.87589279e+02 392. 1.27748406e+00
      2.03532745e+02 687. 1.27748406e+00 2.03532745e+02 687.
      1.27748406e+00 2.03532745e+02 687. 1.27748406e+00 2.03532745e+02
      687. 1.27748406e+00 2.03532745e+02 687.</_>
    <_>
      1.64396989e+00 1.26478683e+02 6098. 1.71435106e+00 1.31693741e+02
      8333. 1.70447886e+00 1.40942123e+02 6859. 1.54022324e+00
      1.50470505e+02 2729. 1.54022324e+00 1.50470505e+02 2729.
      1.54022324e+00 1.50470505e+02 2729. 1.54022324e+00 1.50470505e+02
      2729. 1.54022324e+00 1.50470505e+02 2729.</_>
    <_>
      1.57201779e+00 1.39840256e+02 4044. 1.73134065e+00 1.43726242e+02
      8902. 1.71528614e+00 1.49408524e+02 7576. 8.46383452e-01
      1.78041962e+02 143. 8.46383452e-01 1.78041962e+02 143.
      8.46383452e-01 1.78041962e+02 143. 8.46383452e-01 1.78041962e+02
      143. 8.46383452e-01 1.78041962e+02 143.</_>
    <_>
      1.69696105e+00 1.41941162e+02 7937. 1.69089603e+00 1.47675415e+02
      7043. 1.35733581e+00 1.71307983e+02 1354. 1.38315880e+00
      1.86914932e+02 1105. 1.38315880e+00 1.86914932e+02 1105.
      1.38315880e+00 1.86914932e+02 1105. 1.38315880e+00 1.86914932e+02
      1105. 1.38315880e+00 1.86914932e+02 1105.</_>
    <_>
      1.36063123e+00 1.03975266e+02 1415. 1.46641827e+00 1.18613945e+02
      2567. 1.42247510e+00 1.54755203e+02 1924. 1.43909836e+00
      1.79242096e+02 1991. 1.43909836e+00 1.79242096e+02 1991.
      1.43909836e+00 1.79242096e+02 1991. 1.43909836e+00 1.79242096e+02
      1991. 1.43909836e+00 1.79242096e+02 1991.</_>
    <_>
      1.45118225e+00 1.21779221e+02 2541. 1.61851871e+00 1.37178940e+02
      4767. 1.72600377e+00 1.48100800e+02 8948. 1.58476603e+00
      1.59232498e+02 3428. 1.58476603e+00 1.59232498e+02 3428.
      1.58476603e+00 1.59232498e+02 3428. 1.58476603e+00 1.59232498e+02
      3428. 1.58476603e+00 1.59232498e+02 3428.</_>
    <_>
      1.61203778e+00 1.31197906e+02 4674. 1.75349605e+00 1.35271973e+02
      10049. 1.75226331e+00 1.41875854e+02 9529. 1.59437907e+00
      1.49490982e+02 3273. 1.59437907e+00 1.49490982e+02 3273.
      1.59437907e+00 1.49490982e+02 3273. 1.59437907e+00 1.49490982e+02
      3273. 1.59437907e+00 1.49490982e+02 3273.</_></uncompressed_support_vectors>
  <decision_functions>
    <_>
      <sv_count>1</sv_count>
      <rho>3.1442737768514593e+01</rho>
      <alpha>
        1.</alpha></_></decision_functions></opencv_ml_svm>
</opencv_storage>
